28 64
HD -0.057998624 -0.038032237 0.25494504 0.10197747 -0.10413302 -0.25649935 -0.07537003 0.10903909 0.025876237 -0.15462185 0.11440373 0.04777434 0.20781723 -0.045933798 -0.118524 -0.13880344 -0.08535992 0.13586661 0.044428166 -0.032452047 0.025014259 0.02911877 0.20436028 -0.04264954 0.022618303 0.25862002 -0.22142376 0.051757276 -0.07950134 -0.06813896 -0.05286215 0.054773644 -0.1987506 -0.096891224 0.12867385 0.03078252 -0.010660206 0.105702676 0.24903953 -0.05884091 0.081414774 0.07134669 -0.07433252 -0.10989922 0.058398806 -0.14494036 -0.00077410624 -0.01058641 -0.016498175 -0.010505168 0.061301954 0.04811782 -0.07408113 0.17611912 0.11983701 0.06047474 0.078903854 -0.09917245 -0.052921623 -0.022520801 -0.017296787 -0.09710142 -0.16034164 -0.055803966
HON 0.0468928 -0.02194409 0.10100049 0.08486479 0.0632965 -0.12169925 0.18376186 0.27498752 -0.038619887 0.012292978 0.25025016 -0.09843785 0.16107154 -0.0064805336 -0.15619509 -0.07681989 -0.08280614 -0.006316036 -0.05566767 -0.052753948 0.047495436 0.03697879 0.12142058 -0.10963424 -0.1022204 0.08107463 -0.101561986 0.09812076 -0.08058705 0.028206686 0.14890087 0.18946972 -0.30558476 -0.027363488 -0.055583313 0.12676504 0.17843784 0.08556917 0.18984555 -0.033779003 0.11195172 0.095286004 0.014209621 -0.10172091 -0.1336729 -0.17861153 0.064754605 -0.08119049 0.053329952 0.16955678 0.08185668 0.041293412 -0.07763231 0.05184389 0.21075977 -0.0035798177 0.27434787 -0.1802921 -0.09906492 -0.032941923 0.22209269 -0.11160954 -0.11177023 0.061439205
V 0.06408277 -0.11487415 0.2541002 -0.15697093 -0.03880702 -0.24925679 -0.09026617 0.050801188 -0.011099136 0.014844519 0.23607941 0.110237725 0.097344995 0.00835386 -0.19203682 -0.091859244 -0.14862859 0.18434416 -0.032381736 -0.047953356 0.15519139 0.014925113 0.17625089 -0.013158581 0.00073007465 0.20918308 -0.21049158 0.07354566 -0.056268428 0.009149325 -0.054686096 0.06309524 -0.08464174 0.016486835 -0.011800367 -0.05605707 0.17542584 0.038485732 0.20383388 0.021361766 0.06464699 0.19631532 -0.13562523 -0.12397738 0.049918987 -0.117848225 0.010023203 -0.08324071 0.0642128 -0.111056976 0.058240294 0.026281765 -0.18598734 0.087652765 0.07782651 0.12564309 0.19806528 -0.10723133 -0.09324964 0.02950366 0.11714335 -0.13679092 -0.13469039 0.070975706
UNH -0.046027333 -0.076273344 0.28375217 0.012182478 -0.12508838 -0.2783485 -0.1760416 0.22855851 0.14765769 -0.078955084 0.039393492 0.13108282 0.20709445 0.032201666 -0.16598274 -0.09346253 -0.10082231 0.20808093 -0.025193859 -0.0021755705 0.11090468 0.0012474211 0.23064947 -0.14472657 0.056140583 0.33752418 -0.27844945 0.020594833 -0.034882355 -0.12408344 -0.08563958 -0.030438809 -0.081662014 -0.135503 0.15887497 0.06835843 -0.05386275 0.14930384 0.24815412 -0.12989482 -0.022422254 0.06736772 -0.11690315 -0.09771328 0.13934852 -0.036665503 -0.004290117 0.00969554 -0.09918118 -0.036573656 0.020671025 0.14828935 -0.088611856 0.21959518 0.082118854 0.066551395 0.0063129673 -0.018693443 0.020952707 -0.09073693 -0.14149295 -0.075896606 -0.26398674 -0.108260594
JPM 0.04029232 -0.011271271 0.11856243 -0.05816862 0.07964525 -0.038023062 0.18121849 0.29881683 -0.020941036 0.11506834 0.22610901 0.019682605 0.09096679 0.21682929 -0.14285159 0.15028411 -0.15805015 -0.022484524 -0.08020731 -0.024842046 0.1263086 -0.06864721 0.18101625 -0.1635619 0.0012056889 0.10553148 -0.0070898687 -0.06011363 -0.10724147 -0.11622206 0.1650012 -0.03079758 -0.24200201 -0.18040554 -0.023423485 0.19801864 0.05442566 0.030862845 0.014325854 -0.122013874 0.16543663 0.14427122 -0.07002905 -0.14823115 -0.05283041 -0.055830635 -0.019017404 -0.13350584 0.12550224 0.1297074 0.09500566 0.08158481 -0.08582776 0.018944543 0.34323633 0.096959084 0.21042103 -0.17954318 0.07185801 -0.15841448 0.21398176 -0.13360624 -0.20011315 0.095959336
KO 0.043345664 -0.032776885 0.32496235 0.041946895 -0.10870567 -0.111239575 -0.0067210183 0.33115327 0.10977094 -0.23026843 0.15292013 -0.05911695 -0.04599529 0.013565787 -0.09035191 -0.045100484 0.049548134 -0.05323981 -0.13026392 0.29239276 0.13025975 -0.011807282 0.19604024 -0.24315265 -0.037931677 0.2802378 -0.16612138 0.06344936 -0.032267734 -0.04499386 0.03953642 0.14242552 -0.2707558 -0.26468652 0.08264323 0.13263707 -0.024264436 0.29775795 0.21453995 -0.12561058 -0.106355146 0.21144925 0.059044216 -0.026805446 0.14051172 -0.2663077 -0.04723269 0.01793566 -0.08114986 -0.0066629816 0.0004735908 0.035304483 -0.009660377 0.256486 0.07967723 0.06564154 0.04477935 0.010965195 -0.051766794 -0.18767937 -0.17172797 0.038828284 -0.15610027 -0.038000334
CRM 0.15739529 -0.027240442 0.12504543 -0.026594162 0.024438476 -0.06934722 -0.18948923 -0.056981295 0.04212489 0.09158092 0.11773008 -0.06844916 -0.0010548459 -0.012622578 -0.1578806 -0.070928484 -0.27548414 0.09378719 -0.2042539 -0.12357408 0.15945113 0.012996536 0.19583786 0.092652224 -0.12004743 0.31576154 -0.1942632 -0.1003171 -0.15870403 -0.051835526 -0.12385512 -0.0147425085 -0.09903046 0.11894814 -0.035684105 -0.054588784 0.19108321 0.032192893 0.11427436 0.07831225 0.07014201 0.09554982 -0.14402728 -0.118697666 -0.19102652 -0.14384395 -0.077621475 -0.121844746 0.018811824 -0.26691455 0.23267166 -0.16629963 -0.041781154 0.2068622 0.117690764 0.13262115 0.23240584 -0.29339147 -0.3283184 0.11641968 0.16927832 -0.19194144 0.026852347 0.11981967
JNJ 0.020685874 -0.097596064 0.3941344 0.09135237 -0.015549447 -0.25597852 -0.122201055 0.09367225 -0.013772241 -0.30254996 0.18607889 -0.04198491 0.17245272 -0.056444373 -0.080221705 -0.026611557 -0.094564185 0.038483772 0.048947737 0.17794558 0.105430625 0.016715026 0.19504237 -0.030741094 0.054507103 0.22690387 -0.12845534 0.03604398 -0.11465964 0.07159429 -0.018168826 0.051130865 -0.2505931 -0.27841628 0.22382757 -0.015631128 -0.15794255 0.08708113 0.25834057 -0.08545522 -0.04689045 0.18996604 -0.049206074 -0.13802317 0.18515886 -0.32605273 -0.07082451 -0.017501432 0.115868896 0.007254137 0.0044724005 -0.042334124 -0.06973491 0.1243265 0.10269656 0.062592186 -0.0027891954 -0.0076582893 -0.021353303 -0.075375795 -0.18387027 -0.103588805 -0.11505369 -0.13391744
MSFT -0.062217515 -0.06437424 0.17963794 -0.25447547 -0.17361479 -0.2760853 -0.1400749 0.16036943 -0.010781766 -0.05684232 0.19928892 0.25147855 0.048185557 0.0117289545 -0.079917565 -0.1694372 -0.1709091 0.1917335 0.054467447 -0.12711738 0.07717708 -0.19116057 0.17225207 -0.06601627 0.07557538 0.30231202 -0.13742872 0.032109473 0.1353495 -0.06823279 -0.1628927 0.07108621 -0.077797346 -0.049999714 0.10490111 0.087772325 0.046148356 0.1754104 0.14004561 -0.19372365 0.089819044 0.2962845 -0.19019867 -0.03840059 0.13655749 -0.12620929 -0.034863807 -0.14259805 0.037201554 -0.046788868 0.17068902 -0.058516305 -0.096846305 0.17011043 0.11074303 0.18208316 0.07040008 -0.14947447 -0.02852441 -0.09222412 0.06632295 -0.076873176 -0.16557243 -0.019938981
AXP -0.09935939 0.0853377 0.14547239 0.19854984 0.064173356 -0.121842586 0.18234663 0.057105392 -0.07416771 -0.059853625 0.19026296 -0.052417558 0.111313775 -0.065854296 0.0683037 0.19143681 -0.05169553 -0.0954197 0.024881463 0.20432004 -0.02339198 -0.015750822 0.19145699 0.002295512 0.0062773935 0.017920233 -0.0637174 -0.029052014 -0.12473368 0.024918294 0.04763243 0.10589396 -0.42041308 -0.15203042 0.072196156 0.033991475 0.18512872 0.1708501 0.18973023 -0.037623815 0.22670436 0.15789469 0.16584289 -0.30639106 0.03344453 -0.09780519 0.1405921 0.013866614 0.09444527 0.095597796 0.18231885 -0.08519479 -0.049132463 0.14735372 0.37039205 0.17694177 0.24388218 -0.06788199 -0.063250884 -0.055486772 0.03978484 -0.23316969 -0.032362327 -0.049075853
DIS 0.17067257 0.01999321 0.23088382 0.0034316725 -0.025117988 -0.018858233 -0.14556967 -0.038162358 0.047819346 0.047501326 0.012666004 -0.05820406 -0.10113675 0.12513374 -0.20033056 0.036079414 -0.29197538 0.005341837 -0.21708786 -0.13324526 0.17395301 -0.06484367 0.33948424 0.070715725 -0.036041938 0.2718195 -0.16269636 -0.17386892 -0.20092161 -0.14426598 -0.0219234 0.0025942917 -0.07202283 0.09665114 0.028217854 -0.12203704 0.27424598 0.09220554 -0.048577353 0.16733047 0.14622054 -0.007927132 -0.122613825 -0.14462504 -0.1911028 -0.048066884 0.09354661 -0.059795905 -0.0869909 -0.1266445 0.12583761 -0.066681065 -0.11637551 0.26782107 0.18520048 0.22925182 0.30976057 -0.2721194 -0.26144025 0.12597494 0.24216838 -0.21989594 0.077323586 0.11176494
NKE 0.11631752 -0.002246081 0.21792787 -0.038252153 -0.07321513 -0.15424044 -0.10889549 -0.046974912 0.06137093 -0.08492234 0.0811133 0.022044798 0.032799177 0.09581186 -0.12352455 -0.124773696 -0.33349067 0.1609814 -0.057906426 -0.116701424 0.05089749 0.08387466 0.10683379 0.1084763 -0.13004382 0.33824298 -0.23536856 -0.08061782 -0.12016416 -0.023200288 -0.040528998 -0.02829808 -0.052773718 -0.014113061 -0.02427082 -0.033142295 0.16893384 0.06980073 0.040117547 0.09184442 0.1246665 0.008073341 -0.10105688 -0.0921583 -0.10620251 -0.19415714 -0.18418847 -0.19115546 0.119915105 -0.20458053 0.18382573 0.003197998 -0.118764445 0.17952773 0.10206077 0.22964038 0.23850714 -0.2673317 -0.26939234 0.10788472 0.08594819 -0.14238241 -0.1998561 0.092130855
TRV -0.12446775 -0.18737358 0.045883093 0.17483963 -0.0027857204 -0.020413073 0.14664906 0.30152246 0.035193205 0.009203998 0.064084664 -0.09280426 -0.025272107 0.1681152 -0.15317136 0.15933786 0.06974148 -0.046569083 -0.065542564 0.036376663 0.0653047 0.056890495 0.16630262 -0.115587 -0.033803843 0.2990601 -0.030284172 -0.0045564286 -0.2706165 -0.21243079 0.23217203 -0.20991075 -0.34233353 -0.046380643 0.022552228 0.23103744 0.10537124 0.05763716 0.37931255 -0.3248494 -0.12288802 0.08383651 0.13289179 -0.05191781 0.07982954 -0.17576684 0.24520582 0.115041584 -0.08811043 0.0187808 0.07058275 -0.017132197 -0.041379847 0.2537164 0.26329878 -0.12162408 0.15642953 -0.111587875 -0.05413384 -0.13370961 0.07602102 -0.16976665 -0.19483002 -0.07141788
INTC 0.28156105 -0.018684559 0.16599885 -0.030659795 0.06463938 -0.024058629 -0.19831543 -0.038434744 -0.03522213 0.07197859 0.03347058 -0.09351924 0.016739063 0.10549813 -0.20896646 -0.093307205 -0.3556697 0.01820974 -0.2616216 -0.24685816 0.21067266 -0.07034433 0.33094186 0.04437707 -0.0082507 0.35173863 -0.1888333 -0.102319494 -0.28542805 -0.16033839 0.017368864 -0.0076816217 -0.06406171 0.037609253 -0.065364406 -0.022009704 0.020718776 0.03559063 -0.06959276 0.16768903 0.08822749 0.03440789 -0.3676162 -0.16771218 -0.31552342 -0.21364063 -0.08262069 -0.058657926 -0.002287072 -0.1894962 0.07632958 0.02092641 -0.060980085 0.20169625 0.06947885 0.14603157 0.27950045 -0.30486026 -0.31310236 0.21085227 0.22032976 -0.13305493 -0.006621729 0.23370895
AMGN 0.09175653 -0.07515181 0.35955197 -0.13492408 -0.072496295 -0.3028099 -0.24896643 0.16669442 -0.041716766 -0.23801956 0.09775422 0.09082645 0.06069109 -0.009788968 -0.10906303 -0.09688428 -0.16465302 0.11467047 0.031070841 0.13693228 0.22963881 -0.15567647 0.2044568 -0.09458392 0.055976573 0.28417557 -0.23717368 -0.043236356 0.013375167 -0.025622126 -0.103530645 0.10056071 -0.114327066 -0.17161456 0.32263172 0.07517676 -0.09498686 0.18440461 0.1666864 -0.07422013 -0.030618083 0.24202947 -0.04170585 -0.045732595 0.12581839 -0.2561797 -0.10864221 -0.13245426 0.06961795 -0.018699622 0.013382157 0.05225363 0.03237713 0.11718676 0.105309874 0.121886 -0.031630646 0.050912585 0.04771226 -0.2068845 -0.14080146 -0.1684457 -0.059380554 -0.11589615
PG 0.0049477434 0.063756205 0.33273384 0.1428729 -0.022391036 -0.22158861 -0.17995757 0.13931842 -0.018527828 -0.27366453 0.06835999 -0.025404854 0.017900513 -0.14214884 -0.06820415 -0.09988942 -0.036874976 -0.03822306 -0.059943125 0.21078289 0.16627587 -0.1232051 0.21408167 -0.12424196 0.018069342 0.18423149 -0.27128202 -0.014413417 -0.053932555 -0.026320858 -0.16598164 0.18560433 -0.22549386 -0.1758488 0.39322314 0.06449257 -0.14569801 0.24651434 0.2523108 -0.06331829 -0.035936933 0.18338822 0.06862122 -0.11312696 0.005953783 -0.27202863 -0.10039274 0.0024873558 -0.044556126 0.010776414 0.08872654 -0.034304127 0.18821162 0.1494499 0.22116794 0.06620165 -0.022524063 -0.00911233 -0.035716966 -0.2023587 -0.23928826 -0.20408492 0.019265756 -0.17362733
MCD -0.038431972 -0.087597236 0.10490579 -0.10260312 0.13152684 -0.09667315 -0.024515968 0.29797763 0.06709177 0.040349588 0.25310245 -0.061543647 0.080042996 -0.00037340005 -0.043412708 0.0551476 -0.09162246 -0.12238427 -0.14917338 0.033389 0.11468667 -0.0474257 0.050589815 -0.19133283 -0.06319474 0.20983101 -0.096806444 0.1648594 -0.084252924 0.13078135 -0.05578576 0.051283807 -0.22296053 -0.12492957 0.07246915 0.12345189 -0.01623681 0.19614524 0.28885198 -0.3720035 -0.24963972 0.26706052 -0.060637724 -0.17437959 0.11190551 -0.14416878 0.13891329 0.09342195 0.017991027 0.092354335 0.12210053 -0.08521703 -0.121519364 0.07751222 0.21819998 0.028517075 0.20744053 -0.108269006 -0.09630973 -0.13186975 -0.16183193 -0.12341654 -0.2366632 -0.15904732
WMT 0.030212224 0.08465538 0.28864592 0.22216704 -0.1701301 -0.10195852 0.020109301 0.28317478 0.12474607 -0.19187716 0.2030615 -0.08872402 0.36022493 -0.03585384 0.06303528 0.078794934 -0.0066508045 -0.04435085 -0.057356454 0.21091159 -0.017398244 -0.07853371 0.36280704 -0.059708707 0.08502336 0.1265868 0.040980306 -0.08397371 0.04023303 -0.03582637 -0.040273458 0.10632562 -0.3829709 -0.29770878 0.05217578 -0.065070555 -0.09360583 0.13040076 0.17147678 0.0136984885 0.26638624 0.08408287 0.13905415 -0.14224374 0.062142268 -0.15134646 0.046820857 -0.0034707158 0.039577994 0.021825751 0.13058671 -0.15627931 -0.110509485 0.26406708 0.20826879 0.1422686 0.114978634 -0.03538364 0.119091004 -0.21374905 -0.0032517342 -0.0025321688 -0.002973896 -0.18571372
VZ 0.17282572 -0.078195065 0.103045344 -0.045905314 0.013901456 -0.0824447 -0.1907981 0.032048807 0.10031901 0.025955949 0.087539144 -0.044216905 -0.009330769 0.108475 -0.21769106 -0.070617616 -0.42400524 0.2593398 -0.11212551 -0.18501106 0.21243721 0.13029458 0.2595155 0.1073207 -0.1112797 0.4180778 -0.14836165 -0.14691094 -0.031428743 0.056683313 -0.13414145 0.019693231 0.07707549 0.054259628 -0.08163896 -0.08038195 0.2686278 0.0700084 0.06486202 0.020953907 0.08765132 -0.01895175 -0.19627902 -0.022296399 -0.14968674 -0.0693166 -0.18576457 -0.27752617 -0.0053013507 -0.17445472 0.19469698 -0.22166316 -0.022575973 0.26345226 0.016495487 0.18770362 0.18859959 -0.4212614 -0.33288005 0.017085548 0.20415631 -0.10068087 -0.06637712 0.077191174
CSCO -0.021345591 -0.05315995 0.21799871 -0.19938889 -0.0015906272 -0.19729172 0.06976549 0.1816015 -0.0030878107 0.06180217 0.043978326 0.20141186 -0.013833641 0.20411243 -0.18302357 0.013075822 -0.09546039 0.09840288 0.14792153 -0.029097069 0.023286425 -0.05064777 -0.006935435 -0.023093237 -0.11086762 0.21263754 -0.27168128 0.03660844 -0.13158031 -0.13290615 0.232517 -0.07761817 -0.17082372 0.07749334 0.14468555 0.0710195 0.10522794 -0.020119596 0.18358877 -0.09366299 0.012913297 0.09102672 0.16616113 -0.07837817 -0.116090976 -0.113308765 0.14460099 -0.06803038 0.0012987452 0.07581911 0.13040762 0.16349235 -0.19339226 0.0035758682 0.28337455 0.24584807 0.20997523 -0.19128424 0.054503184 -0.15554307 0.1798076 -0.23285529 -0.36270937 0.074321836
CAT -0.16046296 0.070595436 0.08842045 0.26486856 0.105100535 -0.12818755 0.18851511 0.10118354 -0.06392165 0.025083058 0.18316124 -0.11277013 0.2166601 -0.156627 0.044060092 0.15309995 0.038577586 -0.032126885 0.074262984 0.22434206 -0.06788841 0.055878587 0.14885627 -0.10922238 -0.03856281 0.06710679 -0.12761052 -0.06522804 -0.12037877 -0.10831566 0.0031523185 0.08490657 -0.5618336 -0.2072114 0.094831936 0.23646358 0.1452685 0.18394123 0.19986226 -0.1479301 0.28305784 0.16825947 0.084723055 -0.28868338 0.10526505 0.05061411 0.027184097 -0.073346436 0.052697178 0.116803706 0.18641077 -0.034421057 0.033136874 0.1567022 0.40616277 0.049334865 0.038044218 -0.070210576 -0.051299315 -0.08031616 0.051093526 -0.17631227 -0.018346865 0.07583788
MRK 0.056572165 -0.21484654 0.3577558 -0.013386663 -0.027412854 -0.29955104 -0.2402864 0.16446225 -0.0047355266 -0.22957568 0.2433277 0.013799938 0.25746432 -0.08182353 -0.14770012 -0.037019722 -0.08448665 0.14420794 0.008814216 0.18698399 0.24382274 -0.037836522 0.29028803 -0.07044584 0.12426773 0.31796288 -0.09834323 0.042658675 -0.11744853 0.04907315 -0.0122160595 0.009449486 -0.21783538 -0.22306591 0.1795471 0.024130793 -0.26235893 0.027899534 0.36885592 -0.11453442 -0.12952435 0.3121549 -0.15719229 -0.08209845 0.23190421 -0.39013934 -0.054880455 0.024943752 0.09615561 -0.11986315 -0.056228578 -0.05908085 -0.0138109345 0.13642906 -0.056735247 -0.035560045 -0.056478135 0.12607597 0.03018227 -0.1301067 -0.1751274 -0.056707986 -0.04173656 -0.1302925
AAPL 0.1341515 -0.14506958 0.360227 -0.17574571 -0.114182726 -0.29159257 -0.14332736 0.18226495 0.063609764 -0.1684493 0.14144242 0.034630705 0.11807116 0.087874316 -0.12701173 -0.15509489 -0.23710613 0.14682534 0.061774377 -0.06744111 0.045543842 -0.054311663 0.0119780265 -0.014469752 -0.06946315 0.25042808 -0.18085475 -0.010938234 0.058564954 0.044318967 -0.014053324 0.021949243 -0.101353556 -0.12236505 0.18217863 0.006091398 0.09314366 0.08243558 0.09988503 -0.11530174 -0.039269727 0.15902953 -0.03814936 -0.020167336 0.12756006 -0.23623466 -0.053411048 -0.23849384 0.15671468 0.09523617 0.09857603 0.039362404 -0.28812358 0.0835364 0.14493394 0.12529084 0.050630353 -0.119613305 -0.047418937 -0.008754411 -0.026583724 -0.14744695 -0.2453141 -0.125382
GS -0.011483599 -0.090946116 -0.00057863677 -0.2621668 0.2339045 -0.09199802 0.11853805 0.29541337 -0.06041946 0.21182425 0.1995853 0.016241433 0.11494791 0.05395746 -0.08540292 0.08053858 -0.026171632 -0.025242893 0.11981853 0.0401671 0.103652515 0.04469293 0.08804917 -0.14471038 -0.103175215 0.26369804 -0.19587581 0.22490153 -0.09291748 0.001388245 0.16591501 0.10982902 -0.29093653 0.036604054 -0.1168044 0.16235097 0.06342371 0.10779634 0.2456576 -0.22855571 -0.014227573 0.15547386 -0.005512239 -0.18625456 -0.10344057 0.06808422 0.23810849 0.030804474 -0.08835261 0.11894513 0.028123617 0.032389786 -0.15378548 0.047732845 0.16510329 0.21248297 0.2530169 -0.26774874 0.009487825 -0.25929078 0.2519893 0.008199839 -0.28860545 0.2333656
BA 0.23120366 -0.030494548 0.17674081 0.027873911 0.18665057 -0.056484424 -0.13258824 0.030660843 -0.010718951 0.18353114 0.047373116 -0.0957836 -0.13503675 -0.0337315 -0.3415514 0.0010163507 -0.16464785 0.06744363 -0.1118313 -0.016141733 0.27278763 -0.042360064 0.31852233 0.11914889 -0.11022046 0.21991134 -0.2004702 -0.11794296 -0.18256652 -0.13260159 0.10291396 0.103345595 -0.17013663 0.23747334 0.029676039 -0.094714165 0.17856172 -0.09343639 0.12359026 0.23209722 0.10601486 0.068082064 -0.045249965 -0.13326639 -0.42296666 -0.14871608 0.028327147 -0.083236866 -0.15342233 -0.08058622 0.13453224 -0.2186363 0.067588806 0.18804492 0.13998178 0.1991615 0.1386787 -0.41025847 -0.27298766 0.049827576 0.40402365 -0.15235928 0.1962025 0.2922933
MMM 0.22859418 -0.024353212 0.19658245 0.10631119 0.27182007 -0.03346726 -0.18079923 0.0050146403 0.04885831 0.12356801 -0.008856069 -0.128936 -0.01396406 0.11336043 -0.33399236 0.16191305 -0.42742032 0.08987047 -0.15225221 -0.113984086 0.34644505 0.08972681 0.4271432 0.116590746 -0.0041316054 0.29938155 -0.10664406 -0.19150312 -0.25361937 -0.022694835 0.05413671 -0.020044822 0.008195655 0.011472024 -0.0058277 -0.11333687 0.08413203 -0.061028093 -0.029559867 0.16102208 0.09511778 -0.111704856 -0.28722286 -0.24422187 -0.2990115 -0.020971509 -0.10847437 -0.094197676 -0.05541218 -0.058188263 0.0398985 -0.14450407 0.04620574 0.2183138 0.12755994 0.20567772 0.1742159 -0.4232696 -0.2879651 0.06855488 0.23168206 -0.14880498 0.06339106 0.18114612
CVX 0.0016336752 0.04366394 0.029613461 0.19765829 0.07988014 -0.07492391 0.11152645 0.42379162 0.058115344 0.06293537 0.18499048 -0.1353278 0.3527594 -0.048539072 0.020934202 0.06541182 -0.0016605157 -0.11661263 -0.1860149 0.030948572 0.07879164 -0.024711143 0.23403639 -0.18427627 0.02264183 0.07025837 -0.066341534 0.08956847 -0.035424337 0.031750906 -0.0283466 0.15345715 -0.30871272 -0.15489738 -0.025175862 0.107668474 -0.038840722 0.17630541 0.31068078 -0.17659822 0.0755984 0.043832343 0.105373286 -0.21659346 -0.12241342 -0.07281377 0.12897377 0.11339438 -0.0019149351 0.13390899 0.12933339 -0.02750162 -0.008329092 0.12613003 0.3063437 -0.018287236 0.27513114 -0.099793255 0.043360926 -0.24059735 -0.024176467 -0.108454764 -0.15553279 -0.18673891
DOW -0.07720536 0.052831784 0.06565494 0.14454816 0.055992506 -0.14442855 0.1556729 0.22964513 -0.04035381 0.092678934 0.10729877 -0.03515326 0.3385388 -0.045866236 0.043303244 0.19889306 -0.008400587 -0.014993457 0.14140062 0.10735905 -0.03706128 -0.027187254 0.25634378 -0.002309312 0.038278304 0.095168255 -0.047032304 -0.05383387 -0.05119179 -0.12831528 0.11076815 0.04507817 -0.46409342 -0.08873546 0.0053663575 0.111107305 0.095081314 0.077805094 0.19559933 -0.06502149 0.34152946 0.027594116 0.15685938 -0.28697157 -0.048761446 0.094223596 0.21780877 -0.0028560008 0.015525016 0.13986571 0.14248927 -0.021051273 -0.092623465 0.19281636 0.36063772 0.16771838 0.1742099 -0.124139585 0.10837 -0.19437182 0.23655625 -0.12978104 -0.04668747 0.034581557
